Language model created by QuickLM on Thu Feb 27 10:12:03 EST 2014
Copyright (c) 1996-2010 Carnegie Mellon University and Alexander I. Rudnicky

The model is in standard ARPA format, designed by Doug Paul while he was at MITRE.

The code that was used to produce this language model is available in Open Source.
Please visit http://www.speech.cs.cmu.edu/tools/ for more information

The (fixed) discount mass is 0.5. The backoffs are computed using the ratio method.
This model based on a corpus of 34 sentences and 35 words

\data\
ngram 1=35
ngram 2=66
ngram 3=60

\1-grams:
-0.9949 </s> -0.3010
-0.9949 <s> -0.2430
-2.5263 ACTIVATE -0.2547
-2.2253 BATHROOM -0.2547
-2.2253 BEDROOM -0.2547
-2.2253 BYE -0.2547
-2.2253 CURRENT -0.2932
-2.2253 DATE -0.2547
-2.0492 GOOD -0.2958
-2.5263 HELLO -0.2547
-1.6232 IN -0.2906
-1.8274 IS -0.2945
-2.2253 KITCHEN -0.2547
-1.5263 LAMP -0.2430
-2.2253 LIGHTS -0.2825
-2.2253 LIVING -0.2984
-2.5263 MORNING -0.2547
-2.5263 MUTE -0.2547
-2.5263 NIGHT -0.2547
-1.6812 OFF -0.2371
-1.6812 ON -0.2371
-2.2253 ROOM -0.2547
-2.5263 SLEEP -0.2547
-2.5263 SNOOZE -0.2547
-2.2253 STUDY -0.2958
-2.2253 TEMPERATURE -0.2547
-1.9243 THE -0.2932
-2.2253 TIME -0.2547
-2.5263 TODAYS -0.2984
-1.4849 TURN -0.2825
-2.2253 TV -0.2547
-2.5263 WAKE -0.2547
-1.9243 WEEK -0.2547
-1.8274 WHAT -0.2945
-2.5263 ﻿TURN -0.2919

\2-grams:
-1.8325 <s> ACTIVATE 0.0000
-1.8325 <s> BYE 0.0000
-1.8325 <s> DATE 0.0000
-1.3554 <s> GOOD 0.0000
-1.8325 <s> HELLO 0.0000
-1.5315 <s> LIGHTS 0.0000
-1.8325 <s> MUTE 0.0000
-1.8325 <s> SLEEP 0.0000
-1.8325 <s> SNOOZE 0.0000
-1.8325 <s> STUDY 0.0000
-1.8325 <s> TEMPERATURE 0.0000
-1.8325 <s> TIME 0.0000
-0.7911 <s> TURN 0.0000
-1.8325 <s> WAKE 0.0000
-1.8325 <s> WEEK 0.0000
-1.1335 <s> WHAT 0.0000
-1.8325 <s> ﻿TURN 0.0000
-0.3010 ACTIVATE </s> -0.3010
-0.3010 BATHROOM </s> -0.3010
-0.3010 BEDROOM </s> -0.3010
-0.3010 BYE </s> -0.3010
-0.6021 CURRENT STUDY 0.0000
-0.6021 CURRENT WEEK 0.0000
-0.3010 DATE </s> -0.3010
-0.7782 GOOD BYE 0.0000
-0.7782 GOOD MORNING 0.0000
-0.7782 GOOD NIGHT 0.0000
-0.3010 HELLO </s> -0.3010
-0.9031 IN BATHROOM 0.0000
-0.9031 IN BEDROOM 0.0000
-0.9031 IN KITCHEN 0.0000
-0.9031 IN LIVING 0.0000
-0.3979 IS THE 0.0000
-1.0000 IS TODAYS 0.0000
-0.3010 KITCHEN </s> -0.3010
-1.0000 LAMP </s> -0.3010
-0.3979 LAMP IN 0.0000
-0.6021 LIGHTS OFF -0.2688
-0.6021 LIGHTS ON -0.2688
-0.3010 LIVING ROOM 0.0000
-0.3010 MORNING </s> -0.3010
-0.3010 MUTE </s> -0.3010
-0.3010 NIGHT </s> -0.3010
-1.1461 OFF </s> -0.3010
-0.4472 OFF LAMP 0.0000
-1.1461 OFF TV 0.0000
-1.1461 ON </s> -0.3010
-0.4472 ON LAMP 0.0000
-1.1461 ON TV 0.0000
-0.3010 ROOM </s> -0.3010
-0.3010 SLEEP </s> -0.3010
-0.3010 SNOOZE </s> -0.3010
-0.3010 STUDY WEEK 0.0000
-0.3010 TEMPERATURE </s> -0.3010
-0.6021 THE CURRENT 0.0000
-0.9031 THE TEMPERATURE 0.0000
-0.9031 THE TIME 0.0000
-0.3010 TIME </s> -0.3010
-0.3010 TODAYS DATE 0.0000
-0.5643 TURN OFF -0.0580
-0.6435 TURN ON -0.0580
-0.3010 TV </s> -0.3010
-0.3010 WAKE </s> -0.3010
-0.3010 WEEK </s> -0.3010
-0.3010 WHAT IS 0.0000
-0.3010 ﻿TURN ON -0.1091

\3-grams:
-0.3010 <s> ACTIVATE </s>
-0.3010 <s> BYE </s>
-0.3010 <s> DATE </s>
-0.7782 <s> GOOD BYE
-0.7782 <s> GOOD MORNING
-0.7782 <s> GOOD NIGHT
-0.3010 <s> HELLO </s>
-0.6021 <s> LIGHTS OFF
-0.6021 <s> LIGHTS ON
-0.3010 <s> MUTE </s>
-0.3010 <s> SLEEP </s>
-0.3010 <s> SNOOZE </s>
-0.3010 <s> STUDY WEEK
-0.3010 <s> TEMPERATURE </s>
-0.3010 <s> TIME </s>
-0.5643 <s> TURN OFF
-0.6435 <s> TURN ON
-0.3010 <s> WAKE </s>
-0.3010 <s> WEEK </s>
-0.3010 <s> WHAT IS
-0.3010 <s> ﻿TURN ON
-0.3010 CURRENT STUDY WEEK
-0.3010 CURRENT WEEK </s>
-0.3010 GOOD BYE </s>
-0.3010 GOOD MORNING </s>
-0.3010 GOOD NIGHT </s>
-0.3010 IN BATHROOM </s>
-0.3010 IN BEDROOM </s>
-0.3010 IN KITCHEN </s>
-0.3010 IN LIVING ROOM
-0.6021 IS THE CURRENT
-0.9031 IS THE TEMPERATURE
-0.9031 IS THE TIME
-0.3010 IS TODAYS DATE
-0.9031 LAMP IN BATHROOM
-0.9031 LAMP IN BEDROOM
-0.9031 LAMP IN KITCHEN
-0.9031 LAMP IN LIVING
-0.3010 LIGHTS OFF </s>
-0.3010 LIGHTS ON </s>
-0.3010 LIVING ROOM </s>
-1.0000 OFF LAMP </s>
-0.3979 OFF LAMP IN
-0.3010 OFF TV </s>
-1.0000 ON LAMP </s>
-0.3979 ON LAMP IN
-0.3010 ON TV </s>
-0.3010 STUDY WEEK </s>
-0.6021 THE CURRENT STUDY
-0.6021 THE CURRENT WEEK
-0.3010 THE TEMPERATURE </s>
-0.3010 THE TIME </s>
-0.3010 TODAYS DATE </s>
-0.3802 TURN OFF LAMP
-1.0792 TURN OFF TV
-0.3979 TURN ON LAMP
-1.0000 TURN ON TV
-0.3979 WHAT IS THE
-1.0000 WHAT IS TODAYS
-0.3010 ﻿TURN ON LAMP

\end\
